{
  "num_neurons": [
    16,
    8,
    4
  ],
  "lr": 0.5,
  "id": 909,
  "layers": [
    {
      "num_neurons": 8,
      "prev": 16,
      "next": {
        "num_neurons": 4,
        "prev": 8,
        "next": false,
        "weights": {
          "rows": 4,
          "cols": 8,
          "vals": [
            [
              0.18056911696768596,
              -0.6616520121952765,
              -0.9555879342776348,
              0.02815372321141374,
              0.3716038524253418,
              0.08844221154179222,
              -1.161651604632721,
              1.3059816462265808
            ],
            [
              -0.6685914917047533,
              -0.5420143716950063,
              0.5404577223400788,
              -1.2081090856467784,
              -1.4852445119607995,
              -0.1384772930749052,
              -0.6984063958177624,
              1.4327234678860559
            ],
            [
              1.4677865742684881,
              0.20481864451365772,
              0.16302001519008535,
              1.1110557786612292,
              -1.1367510442315096,
              0.40850717852388296,
              0.3773321272749961,
              0.26523780822897836
            ],
            [
              -0.5474671522230199,
              -0.5008980530692622,
              0.18036873163548583,
              -0.44126625485362414,
              0.9677270778827056,
              -1.158987623994017,
              1.2696560426243106,
              0.2538851041492245
            ]
          ]
        },
        "bias": {
          "rows": 4,
          "cols": 1,
          "vals": [
            [
              0.4050514615815215
            ],
            [
              0.46853854229987335
            ],
            [
              -1.2505902483261857
            ],
            [
              -0.7686426825472346
            ]
          ]
        },
        "last_out": {
          "rows": 4,
          "cols": 1,
          "vals": [
            [
              1
            ],
            [
              2
            ],
            [
              3
            ],
            [
              4
            ]
          ]
        }
      },
      "weights": {
        "rows": 8,
        "cols": 16,
        "vals": [
          [
            -1.3761602623608773,
            -0.1771395885762814,
            0.3456562938987315,
            0.3390449549088111,
            -1.178644616618104,
            0.947790526981132,
            0.22779041677584458,
            0.21387196041586598,
            0.880708030155716,
            0.4858545531942594,
            -1.5,
            -1.0828931409842568,
            0.03208774653986522,
            1.4507176167124616,
            0.8013238049429596,
            -0.03198790551189812
          ],
          [
            -1.460785825281732,
            -0.7205630538733789,
            -0.5521654701550888,
            -0.9693555089770067,
            0.41067336949715605,
            1.4781948141205452,
            0.005858415251362338,
            0.2700133734133945,
            0.7328337736565871,
            -1.473613690368064,
            0.9591117508326591,
            -1.2333298081596005,
            1.1802747025771423,
            -0.2171663449165324,
            0.5074249283516525,
            1.1001046544290736
          ],
          [
            0.6817363470154371,
            0.5443254646752277,
            0.9102598375936869,
            -0.21372805765385464,
            -1.4168972524369814,
            -0.9662446461829343,
            0.7024390510631199,
            0.3365375510483212,
            0.2501712359991608,
            0.5276207554615864,
            -0.5379081720624416,
            -0.5791899094786029,
            -1.3570254689661616,
            -1.4131765304412527,
            0.4696270015579016,
            -0.08438222887996837
          ],
          [
            -0.3618898366538627,
            0.8973069455599926,
            -1.2756162362042138,
            -0.4702472483093414,
            -1.0108941358662933,
            -1.1121034135886823,
            -1.2533641935707502,
            -0.8769514808903519,
            -1.5,
            -0.8120086195796422,
            1.1673166931787717,
            -0.051208005422280704,
            -1.1305904624337049,
            0.29938659428911163,
            -0.7609361384128225,
            -0.4886274310795907
          ],
          [
            0.7063370826350305,
            0.687044393102654,
            0.9259697361882473,
            -0.5492996973784486,
            0.10675226549214975,
            -0.8952083457094268,
            1.0265810826197381,
            1.4020538175534543,
            -0.8791923220097343,
            0.8820252570824635,
            -0.09223915977658109,
            -0.35669211488022173,
            0.9492521849561324,
            1.3902645729647163,
            0.8988638582756373,
            -0.9111683612561683
          ],
          [
            0.053052668177652036,
            0.87910446238182,
            -1.0719284839173686,
            -1.4933506206803506,
            1.1298593485612567,
            -0.1199466002049788,
            0.7422274330744297,
            0.709056421977356,
            -1.4250711694705003,
            0.09316746482273545,
            1.2163504459368524,
            0.9540083861344095,
            -1.3346972135828177,
            -1.135745125319513,
            1.4725788783393936,
            -1.4737074101860228
          ],
          [
            -0.7401052606469362,
            0.5463098367902162,
            -0.12672897265822658,
            -0.04745819271379453,
            -1.2788274812320994,
            -1.0605231169511768,
            -1.0406302356605697,
            -0.521772185701952,
            -0.4637431932279724,
            1.4158232155720392,
            0.32863486710915313,
            -1.2618583892625188,
            -0.2230414425050763,
            -1.2796576872254117,
            -0.1163132739321148,
            1.1794352997790822
          ],
          [
            1.2743509583296297,
            1.2280475760821485,
            0.8586339330924243,
            -0.11602797432027799,
            -1.5,
            -0.0573112463726728,
            1.2602947574854382,
            -0.6240735624362896,
            0.026520361196298952,
            -0.2960155718264911,
            0.1906140762939697,
            0.02336863006555245,
            0.8965224114146972,
            0.7933335092178493,
            0.6296081434127292,
            1.35889058017575
          ]
        ]
      },
      "bias": {
        "rows": 8,
        "cols": 1,
        "vals": [
          [
            -0.13771879666742176
          ],
          [
            -0.589667475294437
          ],
          [
            -0.4694719522590228
          ],
          [
            -1.372965685155422
          ],
          [
            -0.8885434082377317
          ],
          [
            0.7029692545761883
          ],
          [
            0.4479749563520692
          ],
          [
            -0.427973808343583
          ]
        ]
      },
      "last_out": {
        "rows": 8,
        "cols": 1,
        "vals": [
          [
            0.3694096705177508
          ],
          [
            0.4438654058728986
          ],
          [
            0.3401838445013319
          ],
          [
            0.018425922544583934
          ],
          [
            0.550959258123811
          ],
          [
            0.6510452370442725
          ],
          [
            0.5101688292482944
          ],
          [
            0.8673084608114937
          ]
        ]
      }
    },
    {
      "num_neurons": 4,
      "prev": 8,
      "next": false,
      "weights": {
        "rows": 4,
        "cols": 8,
        "vals": [
          [
            0.18056911696768596,
            1.417469901146278,
            1.2405827941656304,
            0.6346027031844625,
            -1.4985298808637761,
            -0.5386510679539189,
            -0.20095387943020593,
            -0.3817663603266768
          ],
          [
            -0.5190647926331459,
            0.2312322718446802,
            -0.6074141612479333,
            1.1088287796672083,
            1.357234000840286,
            0.31921141862409075,
            -1.2265494115262472,
            0.14134076315526037
          ],
          [
            0.512380519478898,
            -1.1625191412741742,
            0.6717549233097828,
            -0.9792217028732142,
            1.372219795152068,
            -0.3846449050819898,
            -1.2916171778339327,
            0.3674787513384812
          ],
          [
            -1.3489372656884508,
            0.9469099655094828,
            -0.29895158311209485,
            -1.3131140717984617,
            -0.24188942930721297,
            1.3772432973436266,
            -0.6743235770028824,
            -1.3617277447803675
          ]
        ]
      },
      "bias": {
        "rows": 4,
        "cols": 1,
        "vals": [
          [
            0.5579746113583475
          ],
          [
            -0.044248114207278144
          ],
          [
            -0.325770473643627
          ],
          [
            1.2016806224020122
          ]
        ]
      },
      "last_out": {
        "rows": 4,
        "cols": 1,
        "vals": [
          [
            1
          ],
          [
            2
          ],
          [
            3
          ],
          [
            4
          ]
        ]
      }
    }
  ]
}
