var champBT = {
   "num_neurons": [
    16,
    8,
    4
  ],
   "lr": 0.5,
   "id": 29,
   "layers": [
      {
         "num_neurons": 8,
         "prev": 16,
         "next": {
            "num_neurons": 4,
            "prev": 8,
            "next": false,
            "weights": {
               "rows": 4,
               "cols": 8,
               "vals": [
            [
              -0.6977654105496391,
              0.3873794495889511,
              -1.3278913096085532,
              0.9675501557368023,
              0.6200383596729098,
              -0.7248746353694036,
              0.5406969879166663,
              0.9379861530729676
            ],
            [
              -0.19231105002242121,
              -0.5102939488005362,
              -0.13200095178596216,
              -0.022912528218577366,
              -0.29943547283164174,
              0.3275090109641148,
              1.0859103384365953,
              -0.8005790569046651
            ],
            [
              -0.49720360246601536,
              -0.017185400326659828,
              -0.056758869130376866,
              -0.05930524520534419,
              1.201513784597342,
              -1.4200811303637966,
              1.2394522858549264,
              -1.385567070498675
            ],
            [
              -1.1286002345859576,
              -0.2914592230123374,
              0.20715286507260267,
              1.3443872485069086,
              0.5947725359926341,
              0.6357944090200629,
              -1.016040300712025,
              0.3745376662747699
            ]
          ]
            },
            "bias": {
               "rows": 4,
               "cols": 1,
               "vals": [
            [
              0.3039561905341235
            ],
            [
              0.3693547210246295
            ],
            [
              -0.6833413005542865
            ],
            [
              -1.2773267446801837
            ]
          ]
            },
            "last_out": {
               "rows": 4,
               "cols": 1,
               "vals": [
            [
              1
            ],
            [
              2
            ],
            [
              3
            ],
            [
              4
            ]
          ]
            }
         },
         "weights": {
            "rows": 8,
            "cols": 16,
            "vals": [
          [
            0.8384189962814179,
            -1.095828209269546,
            0.5756154545077256,
            -0.08648431874627249,
            -0.9021717299634273,
            1.0891817391151357,
            0.22593157808439787,
            -0.9768212409806545,
            -1.2948725591308141,
            1.2195306583764862,
            -1.1919149308559958,
            1.3518581902657076,
            -1.2274111453690935,
            0.9675546909927653,
            1.4295742463691212,
            1.1156408937896654
          ],
          [
            -0.2873789850170565,
            -1.384334535087897,
            1.4639614556838272,
            -1.2672216220914712,
            -1.1732589828026512,
            -0.07263554639718724,
            0.7021626063158329,
            1.246852543009555,
            0.14451541054701328,
            -0.9104674707595936,
            0.5544596003358045,
            0.36709833150428395,
            0.034798527385558484,
            -1.3429340198746178,
            -1.2251541416621754,
            0.6372113145475902
          ],
          [
            -0.9397268552170603,
            0.12692159238740308,
            -1.2093154833490862,
            -1.0511672151844502,
            -0.5886546064157602,
            -0.10175844864238293,
            0.2461635583677843,
            0.11651007529587938,
            -0.6450175020281727,
            -0.03601726003552967,
            -1.5,
            0.6654703641446772,
            -0.8856696037538956,
            -0.0014339552084489463,
            0.9660047129248254,
            -0.5645973753418501
          ],
          [
            0.43200459805640606,
            0.035008006842480344,
            1.1010241959602303,
            -1.4332646952588624,
            -0.0025835615314650645,
            -1.0588613099707893,
            0.6382384844583217,
            0.4469374139848765,
            -0.32021979414606994,
            1.0751514134552236,
            -0.8229115547558167,
            -1.0388276851183014,
            0.7996062054265328,
            0.3229054949540304,
            0.08485404697613409,
            -0.08788584880158365
          ],
          [
            1.3754748183871977,
            0.1987958193800473,
            0.08756589001705502,
            -1.4047896675478777,
            0.8966926041202224,
            -1.1720060616920347,
            -1.2548345796843656,
            1.3901447206701234,
            0.5332623007947204,
            0.5111261786719486,
            -1.2676018601072645,
            -0.27396008224488194,
            -1.2093341657201497,
            -0.6781171513935947,
            0.16311060835330665,
            -0.04395647185642747
          ],
          [
            -0.20134149362902523,
            -0.7275706840797135,
            -0.7835461841101894,
            1.284000722768138,
            1.4569086349635323,
            -0.9979334283494875,
            0.23223108643123186,
            0.6253120979220099,
            -0.3490990511754855,
            0.6164917143259093,
            -1.469744903383047,
            1.3184275992625194,
            0.6510282386739945,
            0.22150607723266708,
            -0.5554389049775915,
            0.5471329640470899
          ],
          [
            1.315821857709025,
            -1.3941795325653858,
            -0.019057234349638047,
            -0.2534301580654202,
            -0.4570103686777013,
            -1.006276314969375,
            -1.4009821031394107,
            -0.027009339576955935,
            -0.43473457238759045,
            1.2328114960133505,
            0.867810504383078,
            -0.16804635647040317,
            0.05966972990764983,
            -1.3743412463036304,
            -1.4919633579885014,
            0.22082149197238654
          ],
          [
            -1.4960925707814863,
            0.700612793303681,
            -1.266083765196748,
            -0.0550277149073581,
            -1.4517330993888606,
            -0.7648966745461877,
            1.1281155558799627,
            -0.6981412184930387,
            -0.4864954866403462,
            -0.6844840204067942,
            1.14268594531917,
            -0.2185926247299626,
            0.9288506854124019,
            0.8913398849625042,
            -0.8613156137690673,
            0.4433991742181538
          ]
        ]
         },
         "bias": {
            "rows": 8,
            "cols": 1,
            "vals": [
          [
            -0.4721542081181002
          ],
          [
            -0.7041282956210804
          ],
          [
            -0.7818147270828394
          ],
          [
            -1.2369664994654093
          ],
          [
            -0.05512413304867836
          ],
          [
            -0.465501851152721
          ],
          [
            -0.9602110580873711
          ],
          [
            -1.5
          ]
        ]
         },
         "last_out": {
            "rows": 8,
            "cols": 1,
            "vals": [
          [
            0.7785308164650023
          ],
          [
            0.25056465192910055
          ],
          [
            0.08627083443055657
          ],
          [
            0.1966600142553511
          ],
          [
            0.752549822065187
          ],
          [
            0.3298614617809796
          ],
          [
            0.6236330529464512
          ],
          [
            0.03732688492936666
          ]
        ]
         }
    },
      {
         "num_neurons": 4,
         "prev": 8,
         "next": false,
         "weights": {
            "rows": 4,
            "cols": 8,
            "vals": [
          [
            -0.7479352980489726,
            0.3396295413345884,
            -1.2466071489361195,
            0.21641955275667954,
            -1.459029472746358,
            1.0669845675232201,
            -1.266808100720535,
            0.21574877928797004
          ],
          [
            -0.6231967131764246,
            -1.3573144604568945,
            -0.7077875415164774,
            0.121463282870911,
            1.5,
            0.42207609749994596,
            0.35278481478422585,
            -0.5314428372637952
          ],
          [
            0.9152619974934447,
            0.8229643095933842,
            0.5598175103699642,
            -0.6521723829219761,
            1.3720539630057589,
            -1.181193926248414,
            -0.15159465442227732,
            -0.8168659315123077
          ],
          [
            -1.33166527100001,
            -0.9370045235565619,
            -0.6872582551469756,
            -0.7704028143074859,
            0.01387753053383794,
            0.8823375859215137,
            1.2661897083714944,
            -1.4517575882896574
          ]
        ]
         },
         "bias": {
            "rows": 4,
            "cols": 1,
            "vals": [
          [
            0.36321507136520936
          ],
          [
            -0.6307938000962565
          ],
          [
            -0.9020773121759349
          ],
          [
            -0.05305119851540008
          ]
        ]
         },
         "last_out": {
            "rows": 4,
            "cols": 1,
            "vals": [
          [
            1
          ],
          [
            2
          ],
          [
            3
          ],
          [
            4
          ]
        ]
         }
    }
  ]
}
