var direct36 = {
   "num_neurons": [
    16,
    8,
    4
  ],
   "lr": 0.5,
   "id": 524,
   "layers": [
      {
         "num_neurons": 8,
         "prev": 16,
         "next": {
            "num_neurons": 4,
            "prev": 8,
            "next": false,
            "weights": {
               "rows": 4,
               "cols": 8,
               "vals": [
            [
              -0.8008755190852539,
              0.475754428355192,
              -0.3736513132802215,
              0.7630446711023828,
              0.10965943006425904,
              0.3066325230283842,
              -0.010563035706851132,
              -0.7098227212132238
            ],
            [
              0.16368503948250002,
              0.263518024649676,
              -0.734393606747429,
              -0.6758011358092242,
              0.8538594273082838,
              0.6280660513844118,
              -0.4845131973827628,
              -0.24970649458204974
            ],
            [
              -0.01990464696877492,
              -0.10415729700923837,
              0.6250801568609945,
              -0.658976243561618,
              -0.7369256266287691,
              0.4270173847996084,
              0.1964759823841895,
              0.6946208452093683
            ],
            [
              -0.01769846442976819,
              -0.999140344816539,
              0.1695799615031297,
              -0.2848521962063315,
              0.8672490346824695,
              0.7642541659433517,
              0.21823611064615145,
              -0.6776695741742742
            ]
          ]
            },
            "bias": {
               "rows": 4,
               "cols": 1,
               "vals": [
            [
              -0.3225416894423052
            ],
            [
              -0.6533537000133842
            ],
            [
              -0.5863312824901765
            ],
            [
              -0.8057587009257294
            ]
          ]
            },
            "last_out": {
               "rows": 4,
               "cols": 1,
               "vals": [
            [
              1
            ],
            [
              2
            ],
            [
              3
            ],
            [
              4
            ]
          ]
            }
         },
         "weights": {
            "rows": 8,
            "cols": 16,
            "vals": [
          [
            0.29847071118794954,
            -0.10103164809608828,
            -0.024108136623485835,
            -0.2592331351475854,
            -0.04193633530173772,
            0.6671229593540009,
            0.9697424807158279,
            -0.35841021867690903,
            0.3358619172830469,
            -0.9251455015465737,
            0.6390413789668599,
            0.1829243691146018,
            -0.4745761086508185,
            0.8738071501975418,
            -0.10819839707265491,
            0.19142412962046085
          ],
          [
            -0.565238767179138,
            0.29576086418138453,
            -0.638978428532652,
            0.7344905809001707,
            0.5965712330012144,
            -0.10331623761591006,
            0.26021981743236694,
            -0.5089407116030674,
            0.6524841810934565,
            -0.5002623592947889,
            -0.20580610459928392,
            -0.17366806162551285,
            -0.1818696769147884,
            -0.03397596355849509,
            -0.2328078433176243,
            0.2852520223664596
          ],
          [
            -0.30968583487994505,
            0.624476758271235,
            -0.5011590801607779,
            0.6581254322035958,
            -0.6887750495660695,
            0.5391174120646537,
            -0.9021029478871064,
            0.7272566882451328,
            -0.6584379603305879,
            0.63923775998303,
            0.27280960574973484,
            -0.659715913034814,
            0.827250098456735,
            0.6145231871876922,
            0.44136105177967133,
            0.6642569263494564
          ],
          [
            0.08872803802984447,
            -0.24728794813456637,
            0.28167268749524244,
            -0.8583570045831183,
            -0.06614986623505636,
            0.06643375099606094,
            -0.7036115438887379,
            0.3601241729769335,
            -0.5322497024875854,
            -0.945761659981079,
            -0.14486887163062512,
            -0.5932344075278152,
            0.31436574573368953,
            -0.15926804874025893,
            0.16209429932945738,
            -0.8766410055842255
          ],
          [
            0.3001582889688309,
            0.3272923742908983,
            0.25210062425925367,
            -0.5822522724702838,
            0.6655088671517242,
            -0.7535656546377174,
            -1,
            0.10746047954892672,
            -0.03149739588569304,
            0.8733209516969757,
            0.9460938487519278,
            0.2672072526932329,
            -0.1208541858593554,
            0.7476259889952264,
            -0.36111172456641766,
            -0.16435611118643434
          ],
          [
            0.2026092211676788,
            -0.4594907068186916,
            0.22047387717035305,
            0.45425507414428323,
            0.39769384110638917,
            -0.8426101377103828,
            -0.4542850907442805,
            -0.9466475399752544,
            -0.3175100337869923,
            -0.7462497361663534,
            -0.6117467216446166,
            -0.5852553748420213,
            0.8605578034048643,
            0.4162337793282754,
            -0.6286062511387892,
            -0.593568648073735
          ],
          [
            -0.6323586165254297,
            0.5478744668671867,
            -1,
            0.6297195258328385,
            -0.10077775488876366,
            1,
            -0.14199448959868097,
            0.359897712204012,
            0.09309309187914559,
            -0.9890214570969691,
            0.7126738832822412,
            -0.4604207993977952,
            -0.8303612700974178,
            0.1498448712328444,
            0.271239325089954,
            -0.04367590113128245
          ],
          [
            0.46857525484045487,
            -0.8948905201278644,
            0.06373005436372421,
            -0.67994809506965,
            0.48842144140091326,
            0.5429050759527198,
            0.18470228126118104,
            -0.1996120378515219,
            -1,
            -0.9217325675882095,
            -0.24414840170762023,
            -0.8103400565059464,
            -0.7009929070593673,
            -0.6088251685759719,
            0.907161692149126,
            0.3054019828333065
          ]
        ]
         },
         "bias": {
            "rows": 8,
            "cols": 1,
            "vals": [
          [
            0.1294025698020457
          ],
          [
            -0.23362826233097547
          ],
          [
            -0.2710971409825733
          ],
          [
            -0.04328906658846643
          ],
          [
            -0.6193891505419675
          ],
          [
            0.2567318698346048
          ],
          [
            -0.2607717225987307
          ],
          [
            -0.2452786999165558
          ]
        ]
         },
         "last_out": {
            "rows": 8,
            "cols": 1,
            "vals": [
          [
            0.7663963010379294
          ],
          [
            0.5054567587910692
          ],
          [
            0.2242651231181264
          ],
          [
            0.2790625888291637
          ],
          [
            0.190643952244493
          ],
          [
            0.4125882119305453
          ],
          [
            0.3838440685374117
          ],
          [
            0.4091198724229032
          ]
        ]
         }
    },
      {
         "num_neurons": 4,
         "prev": 8,
         "next": false,
         "weights": {
            "rows": 4,
            "cols": 8,
            "vals": [
          [
            -0.8008755190852539,
            0.4764736286409167,
            -0.3736513132802215,
            0.7630446711023828,
            0.10993894783912932,
            0.3066325230283842,
            -0.010563035706851132,
            -0.6593753000746175
          ],
          [
            0.147814598798377,
            0.263518024649676,
            -0.734393606747429,
            -0.6758011358092242,
            0.0024642731708046234,
            0.3105680974491958,
            0.3188616093049723,
            0.5395017947737963
          ],
          [
            -0.01990464696877492,
            -0.10415729700923837,
            0.6250801568609945,
            -0.658976243561618,
            0.38531876648549135,
            -0.8355369112373081,
            -0.4438385670784794,
            0.7560551922150713
          ],
          [
            -0.05645132868253642,
            -0.999140344816539,
            0.20769738528009768,
            0.19561703638029249,
            0.6450549900373037,
            0.6047877232555976,
            -0.24076380978842815,
            0.18839024423162343
          ]
        ]
         },
         "bias": {
            "rows": 4,
            "cols": 1,
            "vals": [
          [
            -0.3225416894423052
          ],
          [
            -0.6533537000133842
          ],
          [
            -0.5863312824901765
          ],
          [
            -0.8057587009257294
          ]
        ]
         },
         "last_out": {
            "rows": 4,
            "cols": 1,
            "vals": [
          [
            1
          ],
          [
            2
          ],
          [
            3
          ],
          [
            4
          ]
        ]
         }
    }
  ]
}
