{
  "num_neurons": [
    16,
    8,
    4
  ],
  "lr": 0.5,
  "id": 879,
  "layers": [
    {
      "num_neurons": 8,
      "prev": 16,
      "next": false,
      "weights": {
        "rows": 8,
        "cols": 16,
        "vals": [
          [
            0.5382952425443522,
            -0.11518698166829941,
            -0.31688900426684546,
            -0.26936864355293133,
            -0.001886864145769003,
            0.8702294345411877,
            1,
            -0.3266566688681823,
            0.08408794335794219,
            -0.8350807659918998,
            0.7193442769400329,
            0.40207467990462115,
            -0.2972092490312508,
            0.9111483418841878,
            -0.021064373773392514,
            0.08889651550283431
          ],
          [
            -0.7964016796742501,
            0.11291681800971996,
            -0.7717564483109188,
            1,
            0.592185950406682,
            0.15195393520408432,
            0.418685533544923,
            -0.4008975801538723,
            0.3130907369265018,
            -0.8172205004786701,
            -0.014350005905239707,
            -0.36815103788052495,
            -0.03981465970382657,
            0.13437315015624351,
            -0.3095281095709329,
            0.16856635113470514
          ],
          [
            -0.20217049160870243,
            0.5151733075903269,
            -0.0241666151626104,
            0.440382246012528,
            -0.5734992729878748,
            0.7993707505807631,
            -0.9858323279875284,
            0.6808266540165909,
            -0.8016677032786801,
            0.6074357621391483,
            0.3735768108683793,
            -0.80068824022574,
            0.6607689648718725,
            0.4882017305522037,
            0.14026655430281004,
            0.5367465024404103
          ],
          [
            -0.19131380825594488,
            -0.1519972712815203,
            0.30744911869264,
            -0.9764915602368878,
            0.0009822254464979122,
            0.2449981471176057,
            -0.91141870306783,
            0.16979624104041324,
            -0.3347027504898383,
            -0.8729024094294614,
            -0.13810496972992703,
            -0.013982788794274448,
            0.6254782675163109,
            0.029477845841365972,
            0.484287003393166,
            -0.7838830427726341
          ],
          [
            0.21491994654231955,
            0.20912601380503615,
            0.20067332331675455,
            -0.6397355053247809,
            0.7338656918858545,
            -0.545324547130166,
            -0.8201040757285974,
            -0.3059637176665897,
            0.178961797816522,
            0.8055426855032591,
            0.6015662201645787,
            0.17575980790548967,
            0.18961705718831168,
            0.6982929187376261,
            -0.6214737699051827,
            -0.026721661840171836
          ],
          [
            0.19714931818261952,
            -0.5549908843243775,
            0.07760637051562659,
            0.3188160289667557,
            0.260265992117903,
            -0.8287406989700093,
            -0.6836376157697366,
            -1,
            -0.33172271457675534,
            -0.8196090787440878,
            -0.6651022804991773,
            0.06361013737705234,
            0.8836900038004707,
            0.5340254375368618,
            -0.6784115537595673,
            -0.7373657864673485
          ],
          [
            -0.772207611072484,
            0.4751603388774297,
            -1,
            0.7043448845884327,
            -0.040524197524120766,
            0.8679609919182545,
            -0.020808901987859924,
            0.18678866812742045,
            -0.03330172988666302,
            -0.9485473221311231,
            0.5320168326232677,
            -0.38952429982882875,
            -1,
            -0.003503902249828184,
            0.3857912138827033,
            -0.07228643683814534
          ],
          [
            0.041658153637270934,
            -0.713166444815583,
            0.03229529434791202,
            -0.6476470281861291,
            0.539085124745772,
            0.43793617258842776,
            0.10070471485550594,
            -0.13768670323257626,
            -0.9006613097577185,
            -0.9235068924373355,
            -0.10044182738014779,
            -0.8626810611236752,
            -0.7754906471202344,
            -0.5823346617039208,
            0.6749716145189173,
            0.22489449672663045
          ]
        ]
      },
      "bias": {
        "rows": 8,
        "cols": 1,
        "vals": [
          [
            0.1294025698020457
          ],
          [
            -0.2534486626480237
          ],
          [
            -0.2710971409825733
          ],
          [
            -0.04328906658846643
          ],
          [
            -0.6193891505419675
          ],
          [
            0.2567318698346048
          ],
          [
            -0.2607717225987307
          ],
          [
            -0.2452786999165558
          ]
        ]
      },
      "last_out": {
        "rows": 8,
        "cols": 1,
        "vals": [
          [
            0.6881585092313844
          ],
          [
            0.25458305699034767
          ],
          [
            0.48941272558774923
          ],
          [
            0.26344703412947534
          ],
          [
            0.39840990427735923
          ],
          [
            0.3711943532343393
          ],
          [
            0.23650690249026976
          ],
          [
            0.4614653359782031
          ]
        ]
      }
    },
    {
      "num_neurons": 4,
      "prev": 8,
      "next": false,
      "weights": {
        "rows": 4,
        "cols": 8,
        "vals": [
          [
            -0.8008755190852539,
            0.4764736286409167,
            -0.3736513132802215,
            0.7630446711023828,
            0.10993894783912932,
            0.3066325230283842,
            -0.010563035706851132,
            -0.6593753000746175
          ],
          [
            0.147814598798377,
            0.263518024649676,
            -0.734393606747429,
            -0.6758011358092242,
            0.0024642731708046234,
            0.3105680974491958,
            0.3188616093049723,
            0.5395017947737963
          ],
          [
            -0.01990464696877492,
            -0.10415729700923837,
            0.6250801568609945,
            -0.658976243561618,
            0.38531876648549135,
            -0.8355369112373081,
            -0.4438385670784794,
            0.7560551922150713
          ],
          [
            -0.05645132868253642,
            -0.999140344816539,
            0.20769738528009768,
            0.19561703638029249,
            0.6450549900373037,
            0.6047877232555976,
            -0.24076380978842815,
            0.18839024423162343
          ]
        ]
      },
      "bias": {
        "rows": 4,
        "cols": 1,
        "vals": [
          [
            -0.3225416894423052
          ],
          [
            -0.6533537000133842
          ],
          [
            -0.5863312824901765
          ],
          [
            -0.8057587009257294
          ]
        ]
      },
      "last_out": {
        "rows": 4,
        "cols": 1,
        "vals": [
          [
            1
          ],
          [
            2
          ],
          [
            3
          ],
          [
            4
          ]
        ]
      }
    }
  ]
}
